digraph Tree {
node [shape=box, fontname="helvetica"] ;
edge [fontname="helvetica"] ;
0 [label="CGPA <= 0.751\ngini = 0.406\nsamples = 375\nvalue = [269, 106]"] ;
1 [label="CGPA <= 0.411\ngini = 0.103\nsamples = 275\nvalue = [260, 15]"] ;
0 -> 1 [labeldistance=2.5, labelangle=45, headlabel="True"] ;
2 [label="CGPA <= 0.089\ngini = 0.047\nsamples = 248\nvalue = [242, 6]"] ;
1 -> 2 ;
3 [label="LOR <= -1.876\ngini = 0.01\nsamples = 201\nvalue = [200, 1]"] ;
2 -> 3 ;
4 [label="TOEFL_Score <= -0.196\ngini = 0.198\nsamples = 9\nvalue = [8, 1]"] ;
3 -> 4 ;
5 [label="gini = 0.0\nsamples = 8\nvalue = [8, 0]"] ;
4 -> 5 ;
6 [label="gini = 0.0\nsamples = 1\nvalue = [0, 1]"] ;
4 -> 6 ;
7 [label="gini = 0.0\nsamples = 192\nvalue = [192, 0]"] ;
3 -> 7 ;
8 [label="CGPA <= 0.113\ngini = 0.19\nsamples = 47\nvalue = [42, 5]"] ;
2 -> 8 ;
9 [label="TOEFL_Score <= 0.215\ngini = 0.48\nsamples = 5\nvalue = [3, 2]"] ;
8 -> 9 ;
10 [label="gini = 0.0\nsamples = 3\nvalue = [3, 0]"] ;
9 -> 10 ;
11 [label="gini = 0.0\nsamples = 2\nvalue = [0, 2]"] ;
9 -> 11 ;
12 [label="University_Rating <= 1.213\ngini = 0.133\nsamples = 42\nvalue = [39, 3]"] ;
8 -> 12 ;
13 [label="GRE_Score <= 0.091\ngini = 0.095\nsamples = 40\nvalue = [38, 2]"] ;
12 -> 13 ;
14 [label="Research <= -0.121\ngini = 0.188\nsamples = 19\nvalue = [17, 2]"] ;
13 -> 14 ;
15 [label="gini = 0.0\nsamples = 12\nvalue = [12, 0]"] ;
14 -> 15 ;
16 [label="GRE_Score <= 0.002\ngini = 0.408\nsamples = 7\nvalue = [5, 2]"] ;
14 -> 16 ;
17 [label="CGPA <= 0.312\ngini = 0.278\nsamples = 6\nvalue = [5, 1]"] ;
16 -> 17 ;
18 [label="gini = 0.0\nsamples = 4\nvalue = [4, 0]"] ;
17 -> 18 ;
19 [label="University_Rating <= 0.338\ngini = 0.5\nsamples = 2\nvalue = [1, 1]"] ;
17 -> 19 ;
20 [label="gini = 0.0\nsamples = 1\nvalue = [1, 0]"] ;
19 -> 20 ;
21 [label="gini = 0.0\nsamples = 1\nvalue = [0, 1]"] ;
19 -> 21 ;
22 [label="gini = 0.0\nsamples = 1\nvalue = [0, 1]"] ;
16 -> 22 ;
23 [label="gini = 0.0\nsamples = 21\nvalue = [21, 0]"] ;
13 -> 23 ;
24 [label="TOEFL_Score <= 0.462\ngini = 0.5\nsamples = 2\nvalue = [1, 1]"] ;
12 -> 24 ;
25 [label="gini = 0.0\nsamples = 1\nvalue = [0, 1]"] ;
24 -> 25 ;
26 [label="gini = 0.0\nsamples = 1\nvalue = [1, 0]"] ;
24 -> 26 ;
27 [label="LOR <= 0.829\ngini = 0.444\nsamples = 27\nvalue = [18, 9]"] ;
1 -> 27 ;
28 [label="GRE_Score <= 1.11\ngini = 0.278\nsamples = 18\nvalue = [15, 3]"] ;
27 -> 28 ;
29 [label="University_Rating <= 0.338\ngini = 0.208\nsamples = 17\nvalue = [15, 2]"] ;
28 -> 29 ;
30 [label="gini = 0.0\nsamples = 11\nvalue = [11, 0]"] ;
29 -> 30 ;
31 [label="LOR <= 0.288\ngini = 0.444\nsamples = 6\nvalue = [4, 2]"] ;
29 -> 31 ;
32 [label="LOR <= -0.794\ngini = 0.444\nsamples = 3\nvalue = [1, 2]"] ;
31 -> 32 ;
33 [label="gini = 0.0\nsamples = 1\nvalue = [1, 0]"] ;
32 -> 33 ;
34 [label="gini = 0.0\nsamples = 2\nvalue = [0, 2]"] ;
32 -> 34 ;
35 [label="gini = 0.0\nsamples = 3\nvalue = [3, 0]"] ;
31 -> 35 ;
36 [label="gini = 0.0\nsamples = 1\nvalue = [0, 1]"] ;
28 -> 36 ;
37 [label="TOEFL_Score <= 0.051\ngini = 0.444\nsamples = 9\nvalue = [3, 6]"] ;
27 -> 37 ;
38 [label="CGPA <= 0.718\ngini = 0.444\nsamples = 3\nvalue = [2, 1]"] ;
37 -> 38 ;
39 [label="gini = 0.0\nsamples = 2\nvalue = [2, 0]"] ;
38 -> 39 ;
40 [label="gini = 0.0\nsamples = 1\nvalue = [0, 1]"] ;
38 -> 40 ;
41 [label="TOEFL_Score <= 0.709\ngini = 0.278\nsamples = 6\nvalue = [1, 5]"] ;
37 -> 41 ;
42 [label="gini = 0.0\nsamples = 4\nvalue = [0, 4]"] ;
41 -> 42 ;
43 [label="CGPA <= 0.544\ngini = 0.5\nsamples = 2\nvalue = [1, 1]"] ;
41 -> 43 ;
44 [label="gini = 0.0\nsamples = 1\nvalue = [0, 1]"] ;
43 -> 44 ;
45 [label="gini = 0.0\nsamples = 1\nvalue = [1, 0]"] ;
43 -> 45 ;
46 [label="CGPA <= 0.875\ngini = 0.164\nsamples = 100\nvalue = [9, 91]"] ;
0 -> 46 [labeldistance=2.5, labelangle=-45, headlabel="False"] ;
47 [label="University_Rating <= 1.213\ngini = 0.484\nsamples = 17\nvalue = [7, 10]"] ;
46 -> 47 ;
48 [label="Research <= -0.121\ngini = 0.486\nsamples = 12\nvalue = [7, 5]"] ;
47 -> 48 ;
49 [label="gini = 0.0\nsamples = 2\nvalue = [0, 2]"] ;
48 -> 49 ;
50 [label="CGPA <= 0.775\ngini = 0.42\nsamples = 10\nvalue = [7, 3]"] ;
48 -> 50 ;
51 [label="LOR <= -0.253\ngini = 0.5\nsamples = 4\nvalue = [2, 2]"] ;
50 -> 51 ;
52 [label="gini = 0.0\nsamples = 1\nvalue = [1, 0]"] ;
51 -> 52 ;
53 [label="GRE_Score <= -0.396\ngini = 0.444\nsamples = 3\nvalue = [1, 2]"] ;
51 -> 53 ;
54 [label="gini = 0.0\nsamples = 1\nvalue = [1, 0]"] ;
53 -> 54 ;
55 [label="gini = 0.0\nsamples = 2\nvalue = [0, 2]"] ;
53 -> 55 ;
56 [label="SOP <= 0.38\ngini = 0.278\nsamples = 6\nvalue = [5, 1]"] ;
50 -> 56 ;
57 [label="CGPA <= 0.825\ngini = 0.5\nsamples = 2\nvalue = [1, 1]"] ;
56 -> 57 ;
58 [label="gini = 0.0\nsamples = 1\nvalue = [1, 0]"] ;
57 -> 58 ;
59 [label="gini = 0.0\nsamples = 1\nvalue = [0, 1]"] ;
57 -> 59 ;
60 [label="gini = 0.0\nsamples = 4\nvalue = [4, 0]"] ;
56 -> 60 ;
61 [label="gini = 0.0\nsamples = 5\nvalue = [0, 5]"] ;
47 -> 61 ;
62 [label="GRE_Score <= 0.18\ngini = 0.047\nsamples = 83\nvalue = [2, 81]"] ;
46 -> 62 ;
63 [label="gini = 0.0\nsamples = 1\nvalue = [1, 0]"] ;
62 -> 63 ;
64 [label="CGPA <= 0.974\ngini = 0.024\nsamples = 82\nvalue = [1, 81]"] ;
62 -> 64 ;
65 [label="TOEFL_Score <= 1.203\ngini = 0.124\nsamples = 15\nvalue = [1, 14]"] ;
64 -> 65 ;
66 [label="gini = 0.0\nsamples = 13\nvalue = [0, 13]"] ;
65 -> 66 ;
67 [label="University_Rating <= 0.338\ngini = 0.5\nsamples = 2\nvalue = [1, 1]"] ;
65 -> 67 ;
68 [label="gini = 0.0\nsamples = 1\nvalue = [0, 1]"] ;
67 -> 68 ;
69 [label="gini = 0.0\nsamples = 1\nvalue = [1, 0]"] ;
67 -> 69 ;
70 [label="gini = 0.0\nsamples = 67\nvalue = [0, 67]"] ;
64 -> 70 ;
}