digraph Tree {
node [shape=box, fontname="helvetica"] ;
edge [fontname="helvetica"] ;
0 [label="travel_dist_km <= -0.015\nsquared_error = 93.87\nsamples = 34327\nvalue = 11.375"] ;
1 [label="travel_dist_km <= -0.032\nsquared_error = 30.832\nsamples = 31230\nvalue = 9.195"] ;
0 -> 1 [labeldistance=2.5, labelangle=45, headlabel="True"] ;
2 [label="travel_dist_km <= -0.037\nsquared_error = 20.649\nsamples = 24039\nvalue = 7.588"] ;
1 -> 2 ;
3 [label="travel_dist_km <= -0.045\nsquared_error = 23.896\nsamples = 16031\nvalue = 6.628"] ;
2 -> 3 ;
4 [label="travel_dist_km <= -0.045\nsquared_error = 372.432\nsamples = 575\nvalue = 14.182"] ;
3 -> 4 ;
5 [label="squared_error = 277.573\nsamples = 371\nvalue = 11.568"] ;
4 -> 5 ;
6 [label="squared_error = 509.906\nsamples = 204\nvalue = 18.937"] ;
4 -> 6 ;
7 [label="travel_dist_km <= -0.04\nsquared_error = 8.727\nsamples = 15456\nvalue = 6.347"] ;
3 -> 7 ;
8 [label="squared_error = 7.691\nsamples = 8621\nvalue = 5.576"] ;
7 -> 8 ;
9 [label="squared_error = 8.339\nsamples = 6835\nvalue = 7.32"] ;
7 -> 9 ;
10 [label="year <= 0.407\nsquared_error = 8.607\nsamples = 8008\nvalue = 9.511"] ;
2 -> 10 ;
11 [label="travel_dist_km <= -0.034\nsquared_error = 7.02\nsamples = 5022\nvalue = 8.869"] ;
10 -> 11 ;
12 [label="squared_error = 6.67\nsamples = 3067\nvalue = 8.35"] ;
11 -> 12 ;
13 [label="squared_error = 6.482\nsamples = 1955\nvalue = 9.684"] ;
11 -> 13 ;
14 [label="travel_dist_km <= -0.034\nsquared_error = 9.42\nsamples = 2986\nvalue = 10.59"] ;
10 -> 14 ;
15 [label="squared_error = 9.063\nsamples = 1780\nvalue = 9.875"] ;
14 -> 15 ;
16 [label="squared_error = 8.08\nsamples = 1206\nvalue = 11.645"] ;
14 -> 16 ;
17 [label="travel_dist_km <= -0.024\nsquared_error = 27.423\nsamples = 7191\nvalue = 14.564"] ;
1 -> 17 ;
18 [label="year <= 0.407\nsquared_error = 22.641\nsamples = 4726\nvalue = 13.072"] ;
17 -> 18 ;
19 [label="travel_dist_km <= -0.029\nsquared_error = 13.256\nsamples = 2935\nvalue = 12.046"] ;
18 -> 19 ;
20 [label="squared_error = 13.08\nsamples = 1200\nvalue = 11.061"] ;
19 -> 20 ;
21 [label="squared_error = 12.242\nsamples = 1735\nvalue = 12.727"] ;
19 -> 21 ;
22 [label="travel_dist_km <= -0.027\nsquared_error = 33.468\nsamples = 1791\nvalue = 14.754"] ;
18 -> 22 ;
23 [label="squared_error = 21.366\nsamples = 1212\nvalue = 13.933"] ;
22 -> 23 ;
24 [label="squared_error = 54.433\nsamples = 579\nvalue = 16.473"] ;
22 -> 24 ;
25 [label="year <= 0.407\nsquared_error = 24.149\nsamples = 2465\nvalue = 17.423"] ;
17 -> 25 ;
26 [label="travel_dist_km <= -0.02\nsquared_error = 16.408\nsamples = 1512\nvalue = 16.039"] ;
25 -> 26 ;
27 [label="squared_error = 11.699\nsamples = 891\nvalue = 15.045"] ;
26 -> 27 ;
28 [label="squared_error = 19.716\nsamples = 621\nvalue = 17.464"] ;
26 -> 28 ;
29 [label="travel_dist_km <= -0.018\nsquared_error = 28.565\nsamples = 953\nvalue = 19.62"] ;
25 -> 29 ;
30 [label="squared_error = 25.939\nsamples = 752\nvalue = 18.904"] ;
29 -> 30 ;
31 [label="squared_error = 29.296\nsamples = 201\nvalue = 22.298"] ;
29 -> 31 ;
32 [label="travel_dist_km <= 0.015\nsquared_error = 198.137\nsamples = 3097\nvalue = 33.363"] ;
0 -> 32 [labeldistance=2.5, labelangle=-45, headlabel="False"] ;
33 [label="year <= 0.407\nsquared_error = 79.198\nsamples = 2277\nvalue = 27.956"] ;
32 -> 33 ;
34 [label="travel_dist_km <= -0.009\nsquared_error = 63.776\nsamples = 1399\nvalue = 25.539"] ;
33 -> 34 ;
35 [label="travel_dist_km <= -0.012\nsquared_error = 38.908\nsamples = 476\nvalue = 21.591"] ;
34 -> 35 ;
36 [label="squared_error = 28.135\nsamples = 256\nvalue = 20.204"] ;
35 -> 36 ;
37 [label="squared_error = 46.596\nsamples = 220\nvalue = 23.206"] ;
35 -> 37 ;
38 [label="travel_dist_km <= 0.004\nsquared_error = 64.417\nsamples = 923\nvalue = 27.575"] ;
34 -> 38 ;
39 [label="squared_error = 49.474\nsamples = 709\nvalue = 26.324"] ;
38 -> 39 ;
40 [label="squared_error = 91.561\nsamples = 214\nvalue = 31.72"] ;
38 -> 40 ;
41 [label="travel_dist_km <= -0.01\nsquared_error = 79.631\nsamples = 878\nvalue = 31.807"] ;
33 -> 41 ;
42 [label="hour <= -1.381\nsquared_error = 52.695\nsamples = 266\nvalue = 26.473"] ;
41 -> 42 ;
43 [label="squared_error = 16.954\nsamples = 65\nvalue = 23.23"] ;
42 -> 43 ;
44 [label="squared_error = 59.754\nsamples = 201\nvalue = 27.521"] ;
42 -> 44 ;
45 [label="travel_dist_km <= 0.009\nsquared_error = 73.592\nsamples = 612\nvalue = 34.126"] ;
41 -> 45 ;
46 [label="squared_error = 62.19\nsamples = 546\nvalue = 33.339"] ;
45 -> 46 ;
47 [label="squared_error = 120.354\nsamples = 66\nvalue = 40.64"] ;
45 -> 47 ;
48 [label="travel_dist_km <= 0.189\nsquared_error = 221.867\nsamples = 820\nvalue = 48.375"] ;
32 -> 48 ;
49 [label="travel_dist_km <= 0.021\nsquared_error = 137.764\nsamples = 767\nvalue = 50.649"] ;
48 -> 49 ;
50 [label="year <= 0.407\nsquared_error = 133.16\nsamples = 104\nvalue = 40.568"] ;
49 -> 50 ;
51 [label="squared_error = 90.044\nsamples = 51\nvalue = 36.602"] ;
50 -> 51 ;
52 [label="squared_error = 144.96\nsamples = 53\nvalue = 44.383"] ;
50 -> 52 ;
53 [label="year <= -0.129\nsquared_error = 120.041\nsamples = 663\nvalue = 52.231"] ;
49 -> 53 ;
54 [label="squared_error = 103.284\nsamples = 281\nvalue = 47.764"] ;
53 -> 54 ;
55 [label="squared_error = 106.89\nsamples = 382\nvalue = 55.517"] ;
53 -> 55 ;
56 [label="travel_dist_km <= 33.998\nsquared_error = 280.923\nsamples = 53\nvalue = 15.463"] ;
48 -> 56 ;
57 [label="travel_dist_km <= 33.987\nsquared_error = 251.576\nsamples = 48\nvalue = 13.922"] ;
56 -> 57 ;
58 [label="squared_error = 323.794\nsamples = 33\nvalue = 17.28"] ;
57 -> 58 ;
59 [label="squared_error = 13.298\nsamples = 15\nvalue = 6.533"] ;
57 -> 59 ;
60 [label="squared_error = 320.89\nsamples = 5\nvalue = 30.26"] ;
56 -> 60 ;
}